digraph Tree {
node [shape=box, style="filled", color="black"] ;
0 [label="checkin_acc_A14 <= 0.5\ngini = 0.421\nsamples = 800\nvalue = [559, 241]\nclass = s", fillcolor="#f0b78e"] ;
1 [label="duration <= 0.272\ngini = 0.486\nsamples = 477\nvalue = [279, 198]\nclass = s", fillcolor="#f7dac6"] ;
0 -> 1 [labeldistance=2.5, labelangle=45, headlabel="True"] ;
2 [label="credit_history_A31 <= 0.5\ngini = 0.438\nsamples = 268\nvalue = [181, 87]\nclass = s", fillcolor="#f1be98"] ;
1 -> 2 ;
3 [label="credit_history_A30 <= 0.5\ngini = 0.422\nsamples = 254\nvalue = [177, 77]\nclass = s", fillcolor="#f0b88f"] ;
2 -> 3 ;
4 [label="amount <= 0.398\ngini = 0.405\nsamples = 241\nvalue = [173, 68]\nclass = s", fillcolor="#efb387"] ;
3 -> 4 ;
5 [label="amount <= 0.057\ngini = 0.392\nsamples = 235\nvalue = [172, 63]\nclass = s", fillcolor="#efaf82"] ;
4 -> 5 ;
6 [label="amount <= 0.053\ngini = 0.479\nsamples = 83\nvalue = [50, 33]\nclass = s", fillcolor="#f6d4bc"] ;
5 -> 6 ;
7 [label="age <= 0.304\ngini = 0.423\nsamples = 69\nvalue = [48, 21]\nclass = s", fillcolor="#f0b890"] ;
6 -> 7 ;
8 [label="age <= 0.188\ngini = 0.493\nsamples = 43\nvalue = [24, 19]\nclass = s", fillcolor="#fae5d6"] ;
7 -> 8 ;
9 [label="amount <= 0.04\ngini = 0.461\nsamples = 36\nvalue = [23, 13]\nclass = s", fillcolor="#f4c8a9"] ;
8 -> 9 ;
10 [label="gini = 0.499\nsamples = 25\nvalue = [12, 13]\nclass = t", fillcolor="#f0f7fd"] ;
9 -> 10 ;
11 [label="gini = 0.0\nsamples = 11\nvalue = [11, 0]\nclass = s", fillcolor="#e58139"] ;
9 -> 11 ;
12 [label="duration <= 0.051\ngini = 0.245\nsamples = 7\nvalue = [1, 6]\nclass = t", fillcolor="#5aade9"] ;
8 -> 12 ;
13 [label="gini = 0.0\nsamples = 1\nvalue = [1, 0]\nclass = s", fillcolor="#e58139"] ;
12 -> 13 ;
14 [label="gini = 0.0\nsamples = 6\nvalue = [0, 6]\nclass = t", fillcolor="#399de5"] ;
12 -> 14 ;
15 [label="present_emp_since <= 0.375\ngini = 0.142\nsamples = 26\nvalue = [24, 2]\nclass = s", fillcolor="#e78c49"] ;
7 -> 15 ;
16 [label="age <= 0.741\ngini = 0.5\nsamples = 2\nvalue = [1, 1]\nclass = s", fillcolor="#ffffff"] ;
15 -> 16 ;
17 [label="gini = 0.0\nsamples = 1\nvalue = [0, 1]\nclass = t", fillcolor="#399de5"] ;
16 -> 17 ;
18 [label="gini = 0.0\nsamples = 1\nvalue = [1, 0]\nclass = s", fillcolor="#e58139"] ;
16 -> 18 ;
19 [label="amount <= 0.051\ngini = 0.08\nsamples = 24\nvalue = [23, 1]\nclass = s", fillcolor="#e68642"] ;
15 -> 19 ;
20 [label="gini = 0.0\nsamples = 22\nvalue = [22, 0]\nclass = s", fillcolor="#e58139"] ;
19 -> 20 ;
21 [label="gini = 0.5\nsamples = 2\nvalue = [1, 1]\nclass = s", fillcolor="#ffffff"] ;
19 -> 21 ;
22 [label="age <= 0.634\ngini = 0.245\nsamples = 14\nvalue = [2, 12]\nclass = t", fillcolor="#5aade9"] ;
6 -> 22 ;
23 [label="personal_status_A93 <= 0.5\ngini = 0.142\nsamples = 13\nvalue = [1, 12]\nclass = t", fillcolor="#49a5e7"] ;
22 -> 23 ;
24 [label="gini = 0.0\nsamples = 10\nvalue = [0, 10]\nclass = t", fillcolor="#399de5"] ;
23 -> 24 ;
25 [label="credit_history_A32 <= 0.5\ngini = 0.444\nsamples = 3\nvalue = [1, 2]\nclass = t", fillcolor="#9ccef2"] ;
23 -> 25 ;
26 [label="gini = 0.0\nsamples = 2\nvalue = [0, 2]\nclass = t", fillcolor="#399de5"] ;
25 -> 26 ;
27 [label="gini = 0.0\nsamples = 1\nvalue = [1, 0]\nclass = s", fillcolor="#e58139"] ;
25 -> 27 ;
28 [label="gini = 0.0\nsamples = 1\nvalue = [1, 0]\nclass = s", fillcolor="#e58139"] ;
22 -> 28 ;
29 [label="age <= 0.116\ngini = 0.317\nsamples = 152\nvalue = [122, 30]\nclass = s", fillcolor="#eba06a"] ;
5 -> 29 ;
30 [label="inst_plans_A143 <= 0.5\ngini = 0.438\nsamples = 34\nvalue = [23, 11]\nclass = s", fillcolor="#f1bd98"] ;
29 -> 30 ;
31 [label="residing_since <= 0.167\ngini = 0.32\nsamples = 5\nvalue = [1, 4]\nclass = t", fillcolor="#6ab6ec"] ;
30 -> 31 ;
32 [label="age <= 0.063\ngini = 0.5\nsamples = 2\nvalue = [1, 1]\nclass = s", fillcolor="#ffffff"] ;
31 -> 32 ;
33 [label="gini = 0.0\nsamples = 1\nvalue = [0, 1]\nclass = t", fillcolor="#399de5"] ;
32 -> 33 ;
34 [label="gini = 0.0\nsamples = 1\nvalue = [1, 0]\nclass = s", fillcolor="#e58139"] ;
32 -> 34 ;
35 [label="gini = 0.0\nsamples = 3\nvalue = [0, 3]\nclass = t", fillcolor="#399de5"] ;
31 -> 35 ;
36 [label="amount <= 0.123\ngini = 0.366\nsamples = 29\nvalue = [22, 7]\nclass = s", fillcolor="#eda978"] ;
30 -> 36 ;
37 [label="amount <= 0.111\ngini = 0.465\nsamples = 19\nvalue = [12, 7]\nclass = s", fillcolor="#f4caac"] ;
36 -> 37 ;
38 [label="gini = 0.375\nsamples = 16\nvalue = [12, 4]\nclass = s", fillcolor="#eeab7b"] ;
37 -> 38 ;
39 [label="gini = 0.0\nsamples = 3\nvalue = [0, 3]\nclass = t", fillcolor="#399de5"] ;
37 -> 39 ;
40 [label="gini = 0.0\nsamples = 10\nvalue = [10, 0]\nclass = s", fillcolor="#e58139"] ;
36 -> 40 ;
41 [label="checkin_acc_A11 <= 0.5\ngini = 0.27\nsamples = 118\nvalue = [99, 19]\nclass = s", fillcolor="#ea995f"] ;
29 -> 41 ;
42 [label="inst_plans_A142 <= 0.5\ngini = 0.198\nsamples = 72\nvalue = [64, 8]\nclass = s", fillcolor="#e89152"] ;
41 -> 42 ;
43 [label="personal_status_A92 <= 0.5\ngini = 0.163\nsamples = 67\nvalue = [61, 6]\nclass = s", fillcolor="#e88d4c"] ;
42 -> 43 ;
44 [label="gini = 0.109\nsamples = 52\nvalue = [49, 3]\nclass = s", fillcolor="#e78945"] ;
43 -> 44 ;
45 [label="gini = 0.32\nsamples = 15\nvalue = [12, 3]\nclass = s", fillcolor="#eca06a"] ;
43 -> 45 ;
46 [label="amount <= 0.106\ngini = 0.48\nsamples = 5\nvalue = [3, 2]\nclass = s", fillcolor="#f6d5bd"] ;
42 -> 46 ;
47 [label="gini = 0.0\nsamples = 2\nvalue = [0, 2]\nclass = t", fillcolor="#399de5"] ;
46 -> 47 ;
48 [label="gini = 0.0\nsamples = 3\nvalue = [3, 0]\nclass = s", fillcolor="#e58139"] ;
46 -> 48 ;
49 [label="inst_plans_A141 <= 0.5\ngini = 0.364\nsamples = 46\nvalue = [35, 11]\nclass = s", fillcolor="#eda977"] ;
41 -> 49 ;
50 [label="amount <= 0.128\ngini = 0.314\nsamples = 41\nvalue = [33, 8]\nclass = s", fillcolor="#eba069"] ;
49 -> 50 ;
51 [label="gini = 0.153\nsamples = 24\nvalue = [22, 2]\nclass = s", fillcolor="#e78c4b"] ;
50 -> 51 ;
52 [label="gini = 0.457\nsamples = 17\nvalue = [11, 6]\nclass = s", fillcolor="#f3c6a5"] ;
50 -> 52 ;
53 [label="present_emp_since <= 0.375\ngini = 0.48\nsamples = 5\nvalue = [2, 3]\nclass = t", fillcolor="#bddef6"] ;
49 -> 53 ;
54 [label="gini = 0.0\nsamples = 2\nvalue = [2, 0]\nclass = s", fillcolor="#e58139"] ;
53 -> 54 ;
55 [label="gini = 0.0\nsamples = 3\nvalue = [0, 3]\nclass = t", fillcolor="#399de5"] ;
53 -> 55 ;
56 [label="credit_history_A32 <= 0.5\ngini = 0.278\nsamples = 6\nvalue = [1, 5]\nclass = t", fillcolor="#61b1ea"] ;
4 -> 56 ;
57 [label="gini = 0.0\nsamples = 1\nvalue = [1, 0]\nclass = s", fillcolor="#e58139"] ;
56 -> 57 ;
58 [label="gini = 0.0\nsamples = 5\nvalue = [0, 5]\nclass = t", fillcolor="#399de5"] ;
56 -> 58 ;
59 [label="inst_plans_A141 <= 0.5\ngini = 0.426\nsamples = 13\nvalue = [4, 9]\nclass = t", fillcolor="#91c9f1"] ;
3 -> 59 ;
60 [label="job_A172 <= 0.5\ngini = 0.198\nsamples = 9\nvalue = [1, 8]\nclass = t", fillcolor="#52a9e8"] ;
59 -> 60 ;
61 [label="gini = 0.0\nsamples = 8\nvalue = [0, 8]\nclass = t", fillcolor="#399de5"] ;
60 -> 61 ;
62 [label="gini = 0.0\nsamples = 1\nvalue = [1, 0]\nclass = s", fillcolor="#e58139"] ;
60 -> 62 ;
63 [label="age <= 0.384\ngini = 0.375\nsamples = 4\nvalue = [3, 1]\nclass = s", fillcolor="#eeab7b"] ;
59 -> 63 ;
64 [label="gini = 0.0\nsamples = 3\nvalue = [3, 0]\nclass = s", fillcolor="#e58139"] ;
63 -> 64 ;
65 [label="gini = 0.0\nsamples = 1\nvalue = [0, 1]\nclass = t", fillcolor="#399de5"] ;
63 -> 65 ;
66 [label="amount <= 0.017\ngini = 0.408\nsamples = 14\nvalue = [4, 10]\nclass = t", fillcolor="#88c4ef"] ;
2 -> 66 ;
67 [label="gini = 0.0\nsamples = 2\nvalue = [2, 0]\nclass = s", fillcolor="#e58139"] ;
66 -> 67 ;
68 [label="checkin_acc_A13 <= 0.5\ngini = 0.278\nsamples = 12\nvalue = [2, 10]\nclass = t", fillcolor="#61b1ea"] ;
66 -> 68 ;
69 [label="job_A174 <= 0.5\ngini = 0.165\nsamples = 11\nvalue = [1, 10]\nclass = t", fillcolor="#4da7e8"] ;
68 -> 69 ;
70 [label="gini = 0.0\nsamples = 8\nvalue = [0, 8]\nclass = t", fillcolor="#399de5"] ;
69 -> 70 ;
71 [label="checkin_acc_A12 <= 0.5\ngini = 0.444\nsamples = 3\nvalue = [1, 2]\nclass = t", fillcolor="#9ccef2"] ;
69 -> 71 ;
72 [label="gini = 0.0\nsamples = 1\nvalue = [1, 0]\nclass = s", fillcolor="#e58139"] ;
71 -> 72 ;
73 [label="gini = 0.0\nsamples = 2\nvalue = [0, 2]\nclass = t", fillcolor="#399de5"] ;
71 -> 73 ;
74 [label="gini = 0.0\nsamples = 1\nvalue = [1, 0]\nclass = s", fillcolor="#e58139"] ;
68 -> 74 ;
75 [label="savings_acc_A61 <= 0.5\ngini = 0.498\nsamples = 209\nvalue = [98, 111]\nclass = t", fillcolor="#e8f4fc"] ;
1 -> 75 ;
76 [label="credit_history_A32 <= 0.5\ngini = 0.479\nsamples = 78\nvalue = [47, 31]\nclass = s", fillcolor="#f6d4bc"] ;
75 -> 76 ;
77 [label="amount <= 0.062\ngini = 0.375\nsamples = 44\nvalue = [33, 11]\nclass = s", fillcolor="#eeab7b"] ;
76 -> 77 ;
78 [label="inst_plans_A143 <= 0.5\ngini = 0.48\nsamples = 5\nvalue = [2, 3]\nclass = t", fillcolor="#bddef6"] ;
77 -> 78 ;
79 [label="gini = 0.0\nsamples = 3\nvalue = [0, 3]\nclass = t", fillcolor="#399de5"] ;
78 -> 79 ;
80 [label="gini = 0.0\nsamples = 2\nvalue = [2, 0]\nclass = s", fillcolor="#e58139"] ;
78 -> 80 ;
81 [label="savings_acc_A65 <= 0.5\ngini = 0.326\nsamples = 39\nvalue = [31, 8]\nclass = s", fillcolor="#eca26c"] ;
77 -> 81 ;
82 [label="job_A173 <= 0.5\ngini = 0.444\nsamples = 24\nvalue = [16, 8]\nclass = s", fillcolor="#f2c09c"] ;
81 -> 82 ;
83 [label="amount <= 0.296\ngini = 0.444\nsamples = 9\nvalue = [3, 6]\nclass = t", fillcolor="#9ccef2"] ;
82 -> 83 ;
84 [label="gini = 0.0\nsamples = 4\nvalue = [0, 4]\nclass = t", fillcolor="#399de5"] ;
83 -> 84 ;
85 [label="present_emp_since <= 0.875\ngini = 0.48\nsamples = 5\nvalue = [3, 2]\nclass = s", fillcolor="#f6d5bd"] ;
83 -> 85 ;
86 [label="gini = 0.0\nsamples = 3\nvalue = [3, 0]\nclass = s", fillcolor="#e58139"] ;
85 -> 86 ;
87 [label="gini = 0.0\nsamples = 2\nvalue = [0, 2]\nclass = t", fillcolor="#399de5"] ;
85 -> 87 ;
88 [label="savings_acc_A63 <= 0.5\ngini = 0.231\nsamples = 15\nvalue = [13, 2]\nclass = s", fillcolor="#e99457"] ;
82 -> 88 ;
89 [label="gini = 0.0\nsamples = 10\nvalue = [10, 0]\nclass = s", fillcolor="#e58139"] ;
88 -> 89 ;
90 [label="inst_plans_A143 <= 0.5\ngini = 0.48\nsamples = 5\nvalue = [3, 2]\nclass = s", fillcolor="#f6d5bd"] ;
88 -> 90 ;
91 [label="gini = 0.0\nsamples = 2\nvalue = [2, 0]\nclass = s", fillcolor="#e58139"] ;
90 -> 91 ;
92 [label="duration <= 0.537\ngini = 0.444\nsamples = 3\nvalue = [1, 2]\nclass = t", fillcolor="#9ccef2"] ;
90 -> 92 ;
93 [label="gini = 0.0\nsamples = 2\nvalue = [0, 2]\nclass = t", fillcolor="#399de5"] ;
92 -> 93 ;
94 [label="gini = 0.0\nsamples = 1\nvalue = [1, 0]\nclass = s", fillcolor="#e58139"] ;
92 -> 94 ;
95 [label="gini = 0.0\nsamples = 15\nvalue = [15, 0]\nclass = s", fillcolor="#e58139"] ;
81 -> 95 ;
96 [label="savings_acc_A62 <= 0.5\ngini = 0.484\nsamples = 34\nvalue = [14, 20]\nclass = t", fillcolor="#c4e2f7"] ;
76 -> 96 ;
97 [label="checkin_acc_A11 <= 0.5\ngini = 0.497\nsamples = 24\nvalue = [13, 11]\nclass = s", fillcolor="#fbece1"] ;
96 -> 97 ;
98 [label="amount <= 0.521\ngini = 0.375\nsamples = 12\nvalue = [9, 3]\nclass = s", fillcolor="#eeab7b"] ;
97 -> 98 ;
99 [label="present_emp_since <= 0.375\ngini = 0.18\nsamples = 10\nvalue = [9, 1]\nclass = s", fillcolor="#e88f4f"] ;
98 -> 99 ;
100 [label="job_A173 <= 0.5\ngini = 0.5\nsamples = 2\nvalue = [1, 1]\nclass = s", fillcolor="#ffffff"] ;
99 -> 100 ;
101 [label="gini = 0.0\nsamples = 1\nvalue = [1, 0]\nclass = s", fillcolor="#e58139"] ;
100 -> 101 ;
102 [label="gini = 0.0\nsamples = 1\nvalue = [0, 1]\nclass = t", fillcolor="#399de5"] ;
100 -> 102 ;
103 [label="gini = 0.0\nsamples = 8\nvalue = [8, 0]\nclass = s", fillcolor="#e58139"] ;
99 -> 103 ;
104 [label="gini = 0.0\nsamples = 2\nvalue = [0, 2]\nclass = t", fillcolor="#399de5"] ;
98 -> 104 ;
105 [label="age <= 0.518\ngini = 0.444\nsamples = 12\nvalue = [4, 8]\nclass = t", fillcolor="#9ccef2"] ;
97 -> 105 ;
106 [label="inst_rate <= 0.5\ngini = 0.32\nsamples = 10\nvalue = [2, 8]\nclass = t", fillcolor="#6ab6ec"] ;
105 -> 106 ;
107 [label="personal_status_A92 <= 0.5\ngini = 0.444\nsamples = 3\nvalue = [2, 1]\nclass = s", fillcolor="#f2c09c"] ;
106 -> 107 ;
108 [label="gini = 0.0\nsamples = 1\nvalue = [0, 1]\nclass = t", fillcolor="#399de5"] ;
107 -> 108 ;
109 [label="gini = 0.0\nsamples = 2\nvalue = [2, 0]\nclass = s", fillcolor="#e58139"] ;
107 -> 109 ;
110 [label="gini = 0.0\nsamples = 7\nvalue = [0, 7]\nclass = t", fillcolor="#399de5"] ;
106 -> 110 ;
111 [label="gini = 0.0\nsamples = 2\nvalue = [2, 0]\nclass = s", fillcolor="#e58139"] ;
105 -> 111 ;
112 [label="checkin_acc_A13 <= 0.5\ngini = 0.18\nsamples = 10\nvalue = [1, 9]\nclass = t", fillcolor="#4fa8e8"] ;
96 -> 112 ;
113 [label="gini = 0.0\nsamples = 9\nvalue = [0, 9]\nclass = t", fillcolor="#399de5"] ;
112 -> 113 ;
114 [label="gini = 0.0\nsamples = 1\nvalue = [1, 0]\nclass = s", fillcolor="#e58139"] ;
112 -> 114 ;
115 [label="duration <= 0.64\ngini = 0.475\nsamples = 131\nvalue = [51, 80]\nclass = t", fillcolor="#b7dbf6"] ;
75 -> 115 ;
116 [label="amount <= 0.108\ngini = 0.496\nsamples = 110\nvalue = [50, 60]\nclass = t", fillcolor="#deeffb"] ;
115 -> 116 ;
117 [label="credit_history_A32 <= 0.5\ngini = 0.34\nsamples = 23\nvalue = [5, 18]\nclass = t", fillcolor="#70b8ec"] ;
116 -> 117 ;
118 [label="gini = 0.0\nsamples = 10\nvalue = [0, 10]\nclass = t", fillcolor="#399de5"] ;
117 -> 118 ;
119 [label="present_emp_since <= 0.875\ngini = 0.473\nsamples = 13\nvalue = [5, 8]\nclass = t", fillcolor="#b5daf5"] ;
117 -> 119 ;
120 [label="personal_status_A93 <= 0.5\ngini = 0.397\nsamples = 11\nvalue = [3, 8]\nclass = t", fillcolor="#83c2ef"] ;
119 -> 120 ;
121 [label="gini = 0.0\nsamples = 6\nvalue = [0, 6]\nclass = t", fillcolor="#399de5"] ;
120 -> 121 ;
122 [label="residing_since <= 0.5\ngini = 0.48\nsamples = 5\nvalue = [3, 2]\nclass = s", fillcolor="#f6d5bd"] ;
120 -> 122 ;
123 [label="gini = 0.0\nsamples = 3\nvalue = [3, 0]\nclass = s", fillcolor="#e58139"] ;
122 -> 123 ;
124 [label="gini = 0.0\nsamples = 2\nvalue = [0, 2]\nclass = t", fillcolor="#399de5"] ;
122 -> 124 ;
125 [label="gini = 0.0\nsamples = 2\nvalue = [2, 0]\nclass = s", fillcolor="#e58139"] ;
119 -> 125 ;
126 [label="amount <= 0.427\ngini = 0.499\nsamples = 87\nvalue = [45, 42]\nclass = s", fillcolor="#fdf7f2"] ;
116 -> 126 ;
127 [label="job_A172 <= 0.5\ngini = 0.482\nsamples = 69\nvalue = [41, 28]\nclass = s", fillcolor="#f7d7c0"] ;
126 -> 127 ;
128 [label="inst_rate <= 0.5\ngini = 0.458\nsamples = 62\nvalue = [40, 22]\nclass = s", fillcolor="#f3c6a6"] ;
127 -> 128 ;
129 [label="inst_plans_A142 <= 0.5\ngini = 0.287\nsamples = 23\nvalue = [19, 4]\nclass = s", fillcolor="#ea9c63"] ;
128 -> 129 ;
130 [label="duration <= 0.493\ngini = 0.18\nsamples = 20\nvalue = [18, 2]\nclass = s", fillcolor="#e88f4f"] ;
129 -> 130 ;
131 [label="gini = 0.105\nsamples = 18\nvalue = [17, 1]\nclass = s", fillcolor="#e78845"] ;
130 -> 131 ;
132 [label="gini = 0.5\nsamples = 2\nvalue = [1, 1]\nclass = s", fillcolor="#ffffff"] ;
130 -> 132 ;
133 [label="amount <= 0.219\ngini = 0.444\nsamples = 3\nvalue = [1, 2]\nclass = t", fillcolor="#9ccef2"] ;
129 -> 133 ;
134 [label="gini = 0.0\nsamples = 1\nvalue = [1, 0]\nclass = s", fillcolor="#e58139"] ;
133 -> 134 ;
135 [label="gini = 0.0\nsamples = 2\nvalue = [0, 2]\nclass = t", fillcolor="#399de5"] ;
133 -> 135 ;
136 [label="age <= 0.42\ngini = 0.497\nsamples = 39\nvalue = [21, 18]\nclass = s", fillcolor="#fbede3"] ;
128 -> 136 ;
137 [label="credit_history_A32 <= 0.5\ngini = 0.491\nsamples = 30\nvalue = [13, 17]\nclass = t", fillcolor="#d0e8f9"] ;
136 -> 137 ;
138 [label="gini = 0.298\nsamples = 11\nvalue = [2, 9]\nclass = t", fillcolor="#65b3eb"] ;
137 -> 138 ;
139 [label="gini = 0.488\nsamples = 19\nvalue = [11, 8]\nclass = s", fillcolor="#f8ddc9"] ;
137 -> 139 ;
140 [label="credit_history_A33 <= 0.5\ngini = 0.198\nsamples = 9\nvalue = [8, 1]\nclass = s", fillcolor="#e89152"] ;
136 -> 140 ;
141 [label="gini = 0.0\nsamples = 8\nvalue = [8, 0]\nclass = s", fillcolor="#e58139"] ;
140 -> 141 ;
142 [label="gini = 0.0\nsamples = 1\nvalue = [0, 1]\nclass = t", fillcolor="#399de5"] ;
140 -> 142 ;
143 [label="present_emp_since <= 0.625\ngini = 0.245\nsamples = 7\nvalue = [1, 6]\nclass = t", fillcolor="#5aade9"] ;
127 -> 143 ;
144 [label="gini = 0.0\nsamples = 6\nvalue = [0, 6]\nclass = t", fillcolor="#399de5"] ;
143 -> 144 ;
145 [label="gini = 0.0\nsamples = 1\nvalue = [1, 0]\nclass = s", fillcolor="#e58139"] ;
143 -> 145 ;
146 [label="present_emp_since <= 0.125\ngini = 0.346\nsamples = 18\nvalue = [4, 14]\nclass = t", fillcolor="#72b9ec"] ;
126 -> 146 ;
147 [label="gini = 0.0\nsamples = 2\nvalue = [2, 0]\nclass = s", fillcolor="#e58139"] ;
146 -> 147 ;
148 [label="duration <= 0.618\ngini = 0.219\nsamples = 16\nvalue = [2, 14]\nclass = t", fillcolor="#55abe9"] ;
146 -> 148 ;
149 [label="num_credits <= 0.5\ngini = 0.124\nsamples = 15\nvalue = [1, 14]\nclass = t", fillcolor="#47a4e7"] ;
148 -> 149 ;
150 [label="gini = 0.0\nsamples = 14\nvalue = [0, 14]\nclass = t", fillcolor="#399de5"] ;
149 -> 150 ;
151 [label="gini = 0.0\nsamples = 1\nvalue = [1, 0]\nclass = s", fillcolor="#e58139"] ;
149 -> 151 ;
152 [label="gini = 0.0\nsamples = 1\nvalue = [1, 0]\nclass = s", fillcolor="#e58139"] ;
148 -> 152 ;
153 [label="amount <= 0.258\ngini = 0.091\nsamples = 21\nvalue = [1, 20]\nclass = t", fillcolor="#43a2e6"] ;
115 -> 153 ;
154 [label="residing_since <= 0.833\ngini = 0.278\nsamples = 6\nvalue = [1, 5]\nclass = t", fillcolor="#61b1ea"] ;
153 -> 154 ;
155 [label="gini = 0.0\nsamples = 1\nvalue = [1, 0]\nclass = s", fillcolor="#e58139"] ;
154 -> 155 ;
156 [label="gini = 0.0\nsamples = 5\nvalue = [0, 5]\nclass = t", fillcolor="#399de5"] ;
154 -> 156 ;
157 [label="gini = 0.0\nsamples = 15\nvalue = [0, 15]\nclass = t", fillcolor="#399de5"] ;
153 -> 157 ;
158 [label="inst_plans_A143 <= 0.5\ngini = 0.231\nsamples = 323\nvalue = [280, 43]\nclass = s", fillcolor="#e99457"] ;
0 -> 158 [labeldistance=2.5, labelangle=-45, headlabel="False"] ;
159 [label="present_emp_since <= 0.625\ngini = 0.44\nsamples = 55\nvalue = [37, 18]\nclass = s", fillcolor="#f2be99"] ;
158 -> 159 ;
160 [label="amount <= 0.078\ngini = 0.499\nsamples = 27\nvalue = [14, 13]\nclass = s", fillcolor="#fdf6f1"] ;
159 -> 160 ;
161 [label="gini = 0.0\nsamples = 4\nvalue = [4, 0]\nclass = s", fillcolor="#e58139"] ;
160 -> 161 ;
162 [label="age <= 0.241\ngini = 0.491\nsamples = 23\nvalue = [10, 13]\nclass = t", fillcolor="#d1e8f9"] ;
160 -> 162 ;
163 [label="residing_since <= 0.833\ngini = 0.473\nsamples = 13\nvalue = [8, 5]\nclass = s", fillcolor="#f5d0b5"] ;
162 -> 163 ;
164 [label="age <= 0.125\ngini = 0.397\nsamples = 11\nvalue = [8, 3]\nclass = s", fillcolor="#efb083"] ;
163 -> 164 ;
165 [label="residing_since <= 0.167\ngini = 0.444\nsamples = 3\nvalue = [1, 2]\nclass = t", fillcolor="#9ccef2"] ;
164 -> 165 ;
166 [label="gini = 0.0\nsamples = 1\nvalue = [1, 0]\nclass = s", fillcolor="#e58139"] ;
165 -> 166 ;
167 [label="gini = 0.0\nsamples = 2\nvalue = [0, 2]\nclass = t", fillcolor="#399de5"] ;
165 -> 167 ;
168 [label="credit_history_A33 <= 0.5\ngini = 0.219\nsamples = 8\nvalue = [7, 1]\nclass = s", fillcolor="#e99355"] ;
164 -> 168 ;
169 [label="gini = 0.0\nsamples = 6\nvalue = [6, 0]\nclass = s", fillcolor="#e58139"] ;
168 -> 169 ;
170 [label="inst_plans_A142 <= 0.5\ngini = 0.5\nsamples = 2\nvalue = [1, 1]\nclass = s", fillcolor="#ffffff"] ;
168 -> 170 ;
171 [label="gini = 0.0\nsamples = 1\nvalue = [0, 1]\nclass = t", fillcolor="#399de5"] ;
170 -> 171 ;
172 [label="gini = 0.0\nsamples = 1\nvalue = [1, 0]\nclass = s", fillcolor="#e58139"] ;
170 -> 172 ;
173 [label="gini = 0.0\nsamples = 2\nvalue = [0, 2]\nclass = t", fillcolor="#399de5"] ;
163 -> 173 ;
174 [label="residing_since <= 0.667\ngini = 0.32\nsamples = 10\nvalue = [2, 8]\nclass = t", fillcolor="#6ab6ec"] ;
162 -> 174 ;
175 [label="gini = 0.0\nsamples = 7\nvalue = [0, 7]\nclass = t", fillcolor="#399de5"] ;
174 -> 175 ;
176 [label="duration <= 0.412\ngini = 0.444\nsamples = 3\nvalue = [2, 1]\nclass = s", fillcolor="#f2c09c"] ;
174 -> 176 ;
177 [label="gini = 0.0\nsamples = 2\nvalue = [2, 0]\nclass = s", fillcolor="#e58139"] ;
176 -> 177 ;
178 [label="gini = 0.0\nsamples = 1\nvalue = [0, 1]\nclass = t", fillcolor="#399de5"] ;
176 -> 178 ;
179 [label="amount <= 0.042\ngini = 0.293\nsamples = 28\nvalue = [23, 5]\nclass = s", fillcolor="#eb9c64"] ;
159 -> 179 ;
180 [label="job_A174 <= 0.5\ngini = 0.444\nsamples = 3\nvalue = [1, 2]\nclass = t", fillcolor="#9ccef2"] ;
179 -> 180 ;
181 [label="gini = 0.0\nsamples = 2\nvalue = [0, 2]\nclass = t", fillcolor="#399de5"] ;
180 -> 181 ;
182 [label="gini = 0.0\nsamples = 1\nvalue = [1, 0]\nclass = s", fillcolor="#e58139"] ;
180 -> 182 ;
183 [label="num_credits <= 0.167\ngini = 0.211\nsamples = 25\nvalue = [22, 3]\nclass = s", fillcolor="#e99254"] ;
179 -> 183 ;
184 [label="gini = 0.0\nsamples = 16\nvalue = [16, 0]\nclass = s", fillcolor="#e58139"] ;
183 -> 184 ;
185 [label="inst_rate <= 0.833\ngini = 0.444\nsamples = 9\nvalue = [6, 3]\nclass = s", fillcolor="#f2c09c"] ;
183 -> 185 ;
186 [label="duration <= 0.184\ngini = 0.5\nsamples = 6\nvalue = [3, 3]\nclass = s", fillcolor="#ffffff"] ;
185 -> 186 ;
187 [label="gini = 0.0\nsamples = 2\nvalue = [2, 0]\nclass = s", fillcolor="#e58139"] ;
186 -> 187 ;
188 [label="duration <= 0.471\ngini = 0.375\nsamples = 4\nvalue = [1, 3]\nclass = t", fillcolor="#7bbeee"] ;
186 -> 188 ;
189 [label="gini = 0.0\nsamples = 3\nvalue = [0, 3]\nclass = t", fillcolor="#399de5"] ;
188 -> 189 ;
190 [label="gini = 0.0\nsamples = 1\nvalue = [1, 0]\nclass = s", fillcolor="#e58139"] ;
188 -> 190 ;
191 [label="gini = 0.0\nsamples = 3\nvalue = [3, 0]\nclass = s", fillcolor="#e58139"] ;
185 -> 191 ;
192 [label="age <= 0.223\ngini = 0.169\nsamples = 268\nvalue = [243, 25]\nclass = s", fillcolor="#e88e4d"] ;
158 -> 192 ;
193 [label="amount <= 0.342\ngini = 0.296\nsamples = 105\nvalue = [86, 19]\nclass = s", fillcolor="#eb9d65"] ;
192 -> 193 ;
194 [label="age <= 0.063\ngini = 0.249\nsamples = 96\nvalue = [82, 14]\nclass = s", fillcolor="#e9975b"] ;
193 -> 194 ;
195 [label="savings_acc_A61 <= 0.5\ngini = 0.496\nsamples = 11\nvalue = [6, 5]\nclass = s", fillcolor="#fbeade"] ;
194 -> 195 ;
196 [label="gini = 0.0\nsamples = 4\nvalue = [4, 0]\nclass = s", fillcolor="#e58139"] ;
195 -> 196 ;
197 [label="residing_since <= 0.833\ngini = 0.408\nsamples = 7\nvalue = [2, 5]\nclass = t", fillcolor="#88c4ef"] ;
195 -> 197 ;
198 [label="gini = 0.0\nsamples = 4\nvalue = [0, 4]\nclass = t", fillcolor="#399de5"] ;
197 -> 198 ;
199 [label="amount <= 0.033\ngini = 0.444\nsamples = 3\nvalue = [2, 1]\nclass = s", fillcolor="#f2c09c"] ;
197 -> 199 ;
200 [label="gini = 0.0\nsamples = 1\nvalue = [0, 1]\nclass = t", fillcolor="#399de5"] ;
199 -> 200 ;
201 [label="gini = 0.0\nsamples = 2\nvalue = [2, 0]\nclass = s", fillcolor="#e58139"] ;
199 -> 201 ;
202 [label="savings_acc_A63 <= 0.5\ngini = 0.189\nsamples = 85\nvalue = [76, 9]\nclass = s", fillcolor="#e89050"] ;
194 -> 202 ;
203 [label="duration <= 0.449\ngini = 0.16\nsamples = 80\nvalue = [73, 7]\nclass = s", fillcolor="#e78d4c"] ;
202 -> 203 ;
204 [label="residing_since <= 0.833\ngini = 0.126\nsamples = 74\nvalue = [69, 5]\nclass = s", fillcolor="#e78a47"] ;
203 -> 204 ;
205 [label="savings_acc_A62 <= 0.5\ngini = 0.067\nsamples = 58\nvalue = [56, 2]\nclass = s", fillcolor="#e68640"] ;
204 -> 205 ;
206 [label="credit_history_A33 <= 0.5\ngini = 0.037\nsamples = 53\nvalue = [52, 1]\nclass = s", fillcolor="#e6833d"] ;
205 -> 206 ;
207 [label="gini = 0.0\nsamples = 48\nvalue = [48, 0]\nclass = s", fillcolor="#e58139"] ;
206 -> 207 ;
208 [label="gini = 0.32\nsamples = 5\nvalue = [4, 1]\nclass = s", fillcolor="#eca06a"] ;
206 -> 208 ;
209 [label="age <= 0.179\ngini = 0.32\nsamples = 5\nvalue = [4, 1]\nclass = s", fillcolor="#eca06a"] ;
205 -> 209 ;
210 [label="gini = 0.0\nsamples = 4\nvalue = [4, 0]\nclass = s", fillcolor="#e58139"] ;
209 -> 210 ;
211 [label="gini = 0.0\nsamples = 1\nvalue = [0, 1]\nclass = t", fillcolor="#399de5"] ;
209 -> 211 ;
212 [label="age <= 0.196\ngini = 0.305\nsamples = 16\nvalue = [13, 3]\nclass = s", fillcolor="#eb9e67"] ;
204 -> 212 ;
213 [label="amount <= 0.103\ngini = 0.231\nsamples = 15\nvalue = [13, 2]\nclass = s", fillcolor="#e99457"] ;
212 -> 213 ;
214 [label="gini = 0.444\nsamples = 6\nvalue = [4, 2]\nclass = s", fillcolor="#f2c09c"] ;
213 -> 214 ;
215 [label="gini = 0.0\nsamples = 9\nvalue = [9, 0]\nclass = s", fillcolor="#e58139"] ;
213 -> 215 ;
216 [label="gini = 0.0\nsamples = 1\nvalue = [0, 1]\nclass = t", fillcolor="#399de5"] ;
212 -> 216 ;
217 [label="job_A174 <= 0.5\ngini = 0.444\nsamples = 6\nvalue = [4, 2]\nclass = s", fillcolor="#f2c09c"] ;
203 -> 217 ;
218 [label="gini = 0.0\nsamples = 4\nvalue = [4, 0]\nclass = s", fillcolor="#e58139"] ;
217 -> 218 ;
219 [label="gini = 0.0\nsamples = 2\nvalue = [0, 2]\nclass = t", fillcolor="#399de5"] ;
217 -> 219 ;
220 [label="personal_status_A92 <= 0.5\ngini = 0.48\nsamples = 5\nvalue = [3, 2]\nclass = s", fillcolor="#f6d5bd"] ;
202 -> 220 ;
221 [label="gini = 0.0\nsamples = 3\nvalue = [3, 0]\nclass = s", fillcolor="#e58139"] ;
220 -> 221 ;
222 [label="gini = 0.0\nsamples = 2\nvalue = [0, 2]\nclass = t", fillcolor="#399de5"] ;
220 -> 222 ;
223 [label="present_emp_since <= 0.375\ngini = 0.494\nsamples = 9\nvalue = [4, 5]\nclass = t", fillcolor="#d7ebfa"] ;
193 -> 223 ;
224 [label="gini = 0.0\nsamples = 4\nvalue = [0, 4]\nclass = t", fillcolor="#399de5"] ;
223 -> 224 ;
225 [label="present_emp_since <= 0.875\ngini = 0.32\nsamples = 5\nvalue = [4, 1]\nclass = s", fillcolor="#eca06a"] ;
223 -> 225 ;
226 [label="gini = 0.0\nsamples = 4\nvalue = [4, 0]\nclass = s", fillcolor="#e58139"] ;
225 -> 226 ;
227 [label="gini = 0.0\nsamples = 1\nvalue = [0, 1]\nclass = t", fillcolor="#399de5"] ;
225 -> 227 ;
228 [label="amount <= 0.237\ngini = 0.071\nsamples = 163\nvalue = [157, 6]\nclass = s", fillcolor="#e68641"] ;
192 -> 228 ;
229 [label="savings_acc_A64 <= 0.5\ngini = 0.016\nsamples = 127\nvalue = [126, 1]\nclass = s", fillcolor="#e5823b"] ;
228 -> 229 ;
230 [label="gini = 0.0\nsamples = 116\nvalue = [116, 0]\nclass = s", fillcolor="#e58139"] ;
229 -> 230 ;
231 [label="credit_history_A33 <= 0.5\ngini = 0.165\nsamples = 11\nvalue = [10, 1]\nclass = s", fillcolor="#e88e4d"] ;
229 -> 231 ;
232 [label="gini = 0.0\nsamples = 10\nvalue = [10, 0]\nclass = s", fillcolor="#e58139"] ;
231 -> 232 ;
233 [label="gini = 0.0\nsamples = 1\nvalue = [0, 1]\nclass = t", fillcolor="#399de5"] ;
231 -> 233 ;
234 [label="amount <= 0.242\ngini = 0.239\nsamples = 36\nvalue = [31, 5]\nclass = s", fillcolor="#e99559"] ;
228 -> 234 ;
235 [label="duration <= 0.184\ngini = 0.375\nsamples = 4\nvalue = [1, 3]\nclass = t", fillcolor="#7bbeee"] ;
234 -> 235 ;
236 [label="gini = 0.0\nsamples = 2\nvalue = [0, 2]\nclass = t", fillcolor="#399de5"] ;
235 -> 236 ;
237 [label="age <= 0.429\ngini = 0.5\nsamples = 2\nvalue = [1, 1]\nclass = s", fillcolor="#ffffff"] ;
235 -> 237 ;
238 [label="gini = 0.0\nsamples = 1\nvalue = [1, 0]\nclass = s", fillcolor="#e58139"] ;
237 -> 238 ;
239 [label="gini = 0.0\nsamples = 1\nvalue = [0, 1]\nclass = t", fillcolor="#399de5"] ;
237 -> 239 ;
240 [label="age <= 0.83\ngini = 0.117\nsamples = 32\nvalue = [30, 2]\nclass = s", fillcolor="#e78946"] ;
234 -> 240 ;
241 [label="residing_since <= 0.167\ngini = 0.062\nsamples = 31\nvalue = [30, 1]\nclass = s", fillcolor="#e68540"] ;
240 -> 241 ;
242 [label="job_A174 <= 0.5\ngini = 0.5\nsamples = 2\nvalue = [1, 1]\nclass = s", fillcolor="#ffffff"] ;
241 -> 242 ;
243 [label="gini = 0.0\nsamples = 1\nvalue = [0, 1]\nclass = t", fillcolor="#399de5"] ;
242 -> 243 ;
244 [label="gini = 0.0\nsamples = 1\nvalue = [1, 0]\nclass = s", fillcolor="#e58139"] ;
242 -> 244 ;
245 [label="gini = 0.0\nsamples = 29\nvalue = [29, 0]\nclass = s", fillcolor="#e58139"] ;
241 -> 245 ;
246 [label="gini = 0.0\nsamples = 1\nvalue = [0, 1]\nclass = t", fillcolor="#399de5"] ;
240 -> 246 ;
}